<?xml version="1.0"?>
<opencv_storage>
<cascade>
  <stageType>BOOST</stageType>
  <featureType>HAAR</featureType>
  <height>20</height>
  <width>20</width>
  <stageParams>
    <boostType>GAB</boostType>
    <minHitRate>9.9500000476837158e-01</minHitRate>
    <maxFalseAlarm>5.0000000000000000e-01</maxFalseAlarm>
    <weightTrimRate>9.4999999999999996e-01</weightTrimRate>
    <maxDepth>1</maxDepth>
    <maxWeakCount>100</maxWeakCount></stageParams>
  <featureParams>
    <maxCatCount>0</maxCatCount>
    <featSize>1</featSize>
    <mode>BASIC</mode></featureParams>
  <stageNum>16</stageNum>
  <stages>
    <!-- stage 0 -->
    <_>
      <maxWeakCount>1</maxWeakCount>
      <stageThreshold>7.2100311517715454e-01</stageThreshold>
      <weakClassifiers>
        <_>
          <internalNodes>
            0 -1 33 2.1155076683498919e-04</internalNodes>
          <leafValues>
            7.2100311517715454e-01 -9.8540145158767700e-01</leafValues></_></weakClassifiers></_>
    <!-- stage 1 -->
    <_>
      <maxWeakCount>1</maxWeakCount>
      <stageThreshold>7.0982837677001953e-01</stageThreshold>
      <weakClassifiers>
        <_>
          <internalNodes>
            0 -1 57 -1.1945418082177639e-03</internalNodes>
          <leafValues>
            -9.7014927864074707e-01 7.0982837677001953e-01</leafValues></_></weakClassifiers></_>
    <!-- stage 2 -->
    <_>
      <maxWeakCount>1</maxWeakCount>
      <stageThreshold>7.7922075986862183e-01</stageThreshold>
      <weakClassifiers>
        <_>
          <internalNodes>
            0 -1 58 5.9344607871025801e-04</internalNodes>
          <leafValues>
            7.7922075986862183e-01 -9.7484278678894043e-01</leafValues></_></weakClassifiers></_>
    <!-- stage 3 -->
    <_>
      <maxWeakCount>4</maxWeakCount>
      <stageThreshold>-4.5036536455154419e-01</stageThreshold>
      <weakClassifiers>
        <_>
          <internalNodes>
            0 -1 47 3.2994637149386108e-04</internalNodes>
          <leafValues>
            6.7391306161880493e-01 -8.3206105232238770e-01</leafValues></_>
        <_>
          <internalNodes>
            0 -1 46 -2.3417361080646515e-04</internalNodes>
          <leafValues>
            -9.0459102392196655e-01 4.8835039138793945e-01</leafValues></_>
        <_>
          <internalNodes>
            0 -1 19 -1.4901245012879372e-02</internalNodes>
          <leafValues>
            8.5142654180526733e-01 -5.6423878669738770e-01</leafValues></_>
        <_>
          <internalNodes>
            0 -1 69 -6.0146227042423561e-05</internalNodes>
          <leafValues>
            -7.0193898677825928e-01 4.5758411288261414e-01</leafValues></_></weakClassifiers></_>
    <!-- stage 4 -->
    <_>
      <maxWeakCount>3</maxWeakCount>
      <stageThreshold>3.1087630987167358e-01</stageThreshold>
      <weakClassifiers>
        <_>
          <internalNodes>
            0 -1 16 -3.4683931618928909e-02</internalNodes>
          <leafValues>
            -9.7959184646606445e-01 6.2186115980148315e-01</leafValues></_>
        <_>
          <internalNodes>
            0 -1 27 -2.1764598786830902e-03</internalNodes>
          <leafValues>
            6.8346691131591797e-01 -6.8170619010925293e-01</leafValues></_>
        <_>
          <internalNodes>
            0 -1 68 -2.7460863930173218e-04</internalNodes>
          <leafValues>
            -9.0815287828445435e-01 3.7072134017944336e-01</leafValues></_></weakClassifiers></_>
    <!-- stage 5 -->
    <_>
      <maxWeakCount>6</maxWeakCount>
      <stageThreshold>-2.0284482836723328e-01</stageThreshold>
      <weakClassifiers>
        <_>
          <internalNodes>
            0 -1 26 1.4089127071201801e-03</internalNodes>
          <leafValues>
            -6.0000002384185791e-01 6.9508194923400879e-01</leafValues></_>
        <_>
          <internalNodes>
            0 -1 61 -2.3119684192351997e-04</internalNodes>
          <leafValues>
            -6.9482958316802979e-01 5.2078408002853394e-01</leafValues></_>
        <_>
          <internalNodes>
            0 -1 12 -7.4709826149046421e-03</internalNodes>
          <leafValues>
            7.5782078504562378e-01 -3.9256986975669861e-01</leafValues></_>
        <_>
          <internalNodes>
            0 -1 43 5.5365619482472539e-04</internalNodes>
          <leafValues>
            3.2652094960212708e-01 -9.1665202379226685e-01</leafValues></_>
        <_>
          <internalNodes>
            0 -1 32 9.0561210527084768e-05</internalNodes>
          <leafValues>
            -7.4003350734710693e-01 3.4780117869377136e-01</leafValues></_>
        <_>
          <internalNodes>
            0 -1 35 1.1721237096935511e-03</internalNodes>
          <leafValues>
            -4.0538117289543152e-01 8.2660043239593506e-01</leafValues></_></weakClassifiers></_>
    <!-- stage 6 -->
    <_>
      <maxWeakCount>6</maxWeakCount>
      <stageThreshold>-5.6303125619888306e-01</stageThreshold>
      <weakClassifiers>
        <_>
          <internalNodes>
            0 -1 50 2.8464826755225658e-03</internalNodes>
          <leafValues>
            -2.3344947397708893e-01 8.0327868461608887e-01</leafValues></_>
        <_>
          <internalNodes>
            0 -1 44 -1.3411880936473608e-03</internalNodes>
          <leafValues>
            -8.8898462057113647e-01 4.3096774816513062e-01</leafValues></_>
        <_>
          <internalNodes>
            0 -1 45 1.7562962602823973e-04</internalNodes>
          <leafValues>
            -6.4297288656234741e-01 3.6754220724105835e-01</leafValues></_>
        <_>
          <internalNodes>
            0 -1 48 -2.3370111011900008e-04</internalNodes>
          <leafValues>
            -8.3443582057952881e-01 2.6517695188522339e-01</leafValues></_>
        <_>
          <internalNodes>
            0 -1 60 2.5391919189132750e-04</internalNodes>
          <leafValues>
            2.2900770604610443e-01 -9.4430917501449585e-01</leafValues></_>
        <_>
          <internalNodes>
            0 -1 77 -9.3420274788513780e-04</internalNodes>
          <leafValues>
            7.0819109678268433e-01 -3.9398100972175598e-01</leafValues></_></weakClassifiers></_>
    <!-- stage 7 -->
    <_>
      <maxWeakCount>4</maxWeakCount>
      <stageThreshold>-3.9043907076120377e-02</stageThreshold>
      <weakClassifiers>
        <_>
          <internalNodes>
            0 -1 20 -3.3349962905049324e-03</internalNodes>
          <leafValues>
            8.1355929374694824e-01 -1.9471947848796844e-01</leafValues></_>
        <_>
          <internalNodes>
            0 -1 62 -4.2672985000535846e-04</internalNodes>
          <leafValues>
            -9.1130590438842773e-01 4.1947773098945618e-01</leafValues></_>
        <_>
          <internalNodes>
            0 -1 3 -3.1418767757713795e-03</internalNodes>
          <leafValues>
            7.0857876539230347e-01 -3.9545649290084839e-01</leafValues></_>
        <_>
          <internalNodes>
            0 -1 55 3.4603936364874244e-04</internalNodes>
          <leafValues>
            3.1797337532043457e-01 -8.7662446498870850e-01</leafValues></_></weakClassifiers></_>
    <!-- stage 8 -->
    <_>
      <maxWeakCount>6</maxWeakCount>
      <stageThreshold>-6.8360877037048340e-01</stageThreshold>
      <weakClassifiers>
        <_>
          <internalNodes>
            0 -1 49 -1.3279938139021397e-03</internalNodes>
          <leafValues>
            7.4385964870452881e-01 -4.8292681574821472e-01</leafValues></_>
        <_>
          <internalNodes>
            0 -1 66 1.7767684767022729e-05</internalNodes>
          <leafValues>
            4.3702542781829834e-01 -7.2867625951766968e-01</leafValues></_>
        <_>
          <internalNodes>
            0 -1 51 7.4921052146237344e-05</internalNodes>
          <leafValues>
            -7.7176284790039062e-01 3.3598667383193970e-01</leafValues></_>
        <_>
          <internalNodes>
            0 -1 64 6.6600000718608499e-04</internalNodes>
          <leafValues>
            -3.6338263750076294e-01 8.8828587532043457e-01</leafValues></_>
        <_>
          <internalNodes>
            0 -1 28 2.1925806999206543e-02</internalNodes>
          <leafValues>
            -3.7739250063896179e-01 7.4021244049072266e-01</leafValues></_>
        <_>
          <internalNodes>
            0 -1 0 -3.0610349029302597e-02</internalNodes>
          <leafValues>
            8.6016023159027100e-01 -2.9400372505187988e-01</leafValues></_></weakClassifiers></_>
    <!-- stage 9 -->
    <_>
      <maxWeakCount>6</maxWeakCount>
      <stageThreshold>-6.7836552858352661e-01</stageThreshold>
      <weakClassifiers>
        <_>
          <internalNodes>
            0 -1 67 3.7647737190127373e-04</internalNodes>
          <leafValues>
            5.8187133073806763e-01 -8.0219781398773193e-01</leafValues></_>
        <_>
          <internalNodes>
            0 -1 11 -3.0141393654048443e-03</internalNodes>
          <leafValues>
            5.6921511888504028e-01 -4.5162594318389893e-01</leafValues></_>
        <_>
          <internalNodes>
            0 -1 70 5.6297110859304667e-05</internalNodes>
          <leafValues>
            -4.9529540538787842e-01 5.0151574611663818e-01</leafValues></_>
        <_>
          <internalNodes>
            0 -1 52 5.0423876382410526e-03</internalNodes>
          <leafValues>
            -2.7712827920913696e-01 8.8754671812057495e-01</leafValues></_>
        <_>
          <internalNodes>
            0 -1 39 -3.1265042722225189e-02</internalNodes>
          <leafValues>
            7.0206505060195923e-01 -3.3285212516784668e-01</leafValues></_>
        <_>
          <internalNodes>
            0 -1 65 -2.8512559831142426e-02</internalNodes>
          <leafValues>
            -8.9527565240859985e-01 2.9666489362716675e-01</leafValues></_></weakClassifiers></_>
    <!-- stage 10 -->
    <_>
      <maxWeakCount>6</maxWeakCount>
      <stageThreshold>-8.7267899513244629e-01</stageThreshold>
      <weakClassifiers>
        <_>
          <internalNodes>
            0 -1 13 6.1919842846691608e-04</internalNodes>
          <leafValues>
            6.4630222320556641e-01 -5.0326800346374512e-01</leafValues></_>
        <_>
          <internalNodes>
            0 -1 21 1.2350729666650295e-03</internalNodes>
          <leafValues>
            3.0533260107040405e-01 -8.2310944795608521e-01</leafValues></_>
        <_>
          <internalNodes>
            0 -1 22 -2.8762877918779850e-03</internalNodes>
          <leafValues>
            -9.9269932508468628e-01 2.2668585181236267e-01</leafValues></_>
        <_>
          <internalNodes>
            0 -1 30 9.7925756126642227e-03</internalNodes>
          <leafValues>
            -3.8530114293098450e-01 7.0541954040527344e-01</leafValues></_>
        <_>
          <internalNodes>
            0 -1 24 1.8726095731835812e-04</internalNodes>
          <leafValues>
            -7.7011120319366455e-01 2.9926812648773193e-01</leafValues></_>
        <_>
          <internalNodes>
            0 -1 42 1.9343564053997397e-04</internalNodes>
          <leafValues>
            2.5398284196853638e-01 -8.8495433330535889e-01</leafValues></_></weakClassifiers></_>
    <!-- stage 11 -->
    <_>
      <maxWeakCount>7</maxWeakCount>
      <stageThreshold>-3.0422952771186829e-01</stageThreshold>
      <weakClassifiers>
        <_>
          <internalNodes>
            0 -1 40 -5.7337258476763964e-04</internalNodes>
          <leafValues>
            -7.4000000953674316e-01 5.9111112356185913e-01</leafValues></_>
        <_>
          <internalNodes>
            0 -1 5 5.5859625339508057e-02</internalNodes>
          <leafValues>
            -2.7337843179702759e-01 8.7073230743408203e-01</leafValues></_>
        <_>
          <internalNodes>
            0 -1 72 -1.4998242841102183e-04</internalNodes>
          <leafValues>
            3.8607552647590637e-01 -7.6440352201461792e-01</leafValues></_>
        <_>
          <internalNodes>
            0 -1 29 -1.3360078446567059e-03</internalNodes>
          <leafValues>
            6.7818641662597656e-01 -3.5777765512466431e-01</leafValues></_>
        <_>
          <internalNodes>
            0 -1 74 4.9477629363536835e-03</internalNodes>
          <leafValues>
            -3.4157434105873108e-01 6.2609475851058960e-01</leafValues></_>
        <_>
          <internalNodes>
            0 -1 77 -1.0009676916524768e-03</internalNodes>
          <leafValues>
            6.3415950536727905e-01 -3.7469255924224854e-01</leafValues></_>
        <_>
          <internalNodes>
            0 -1 47 -1.8865284800995141e-05</internalNodes>
          <leafValues>
            -6.8715268373489380e-01 3.8826587796211243e-01</leafValues></_></weakClassifiers></_>
    <!-- stage 12 -->
    <_>
      <maxWeakCount>9</maxWeakCount>
      <stageThreshold>-5.2002626657485962e-01</stageThreshold>
      <weakClassifiers>
        <_>
          <internalNodes>
            0 -1 17 -6.3948851311579347e-04</internalNodes>
          <leafValues>
            -7.3076921701431274e-01 5.9761548042297363e-01</leafValues></_>
        <_>
          <internalNodes>
            0 -1 53 4.2940014973282814e-03</internalNodes>
          <leafValues>
            -4.5613855123519897e-01 5.5402296781539917e-01</leafValues></_>
        <_>
          <internalNodes>
            0 -1 34 7.9799166996963322e-05</internalNodes>
          <leafValues>
            -5.3408795595169067e-01 4.7523432970046997e-01</leafValues></_>
        <_>
          <internalNodes>
            0 -1 56 8.3789149357471615e-05</internalNodes>
          <leafValues>
            2.9071319103240967e-01 -7.0939296483993530e-01</leafValues></_>
        <_>
          <internalNodes>
            0 -1 36 1.1446254793554544e-03</internalNodes>
          <leafValues>
            -5.2608036994934082e-01 3.6391347646713257e-01</leafValues></_>
        <_>
          <internalNodes>
            0 -1 2 -8.0281612463295460e-04</internalNodes>
          <leafValues>
            4.6057415008544922e-01 -3.9626541733741760e-01</leafValues></_>
        <_>
          <internalNodes>
            0 -1 23 -2.2155176848173141e-02</internalNodes>
          <leafValues>
            8.4583860635757446e-01 -2.3858575522899628e-01</leafValues></_>
        <_>
          <internalNodes>
            0 -1 59 4.0520203765481710e-04</internalNodes>
          <leafValues>
            2.3676712810993195e-01 -9.2955493927001953e-01</leafValues></_>
        <_>
          <internalNodes>
            0 -1 75 1.5706969425082207e-03</internalNodes>
          <leafValues>
            -3.4712576866149902e-01 6.6733539104461670e-01</leafValues></_></weakClassifiers></_>
    <!-- stage 13 -->
    <_>
      <maxWeakCount>7</maxWeakCount>
      <stageThreshold>-3.5085910558700562e-01</stageThreshold>
      <weakClassifiers>
        <_>
          <internalNodes>
            0 -1 54 5.7633384130895138e-04</internalNodes>
          <leafValues>
            5.7879233360290527e-01 -7.0833331346511841e-01</leafValues></_>
        <_>
          <internalNodes>
            0 -1 4 1.6691949218511581e-02</internalNodes>
          <leafValues>
            -2.7523997426033020e-01 8.2123488187789917e-01</leafValues></_>
        <_>
          <internalNodes>
            0 -1 14 7.7781078289262950e-05</internalNodes>
          <leafValues>
            -5.2979594469070435e-01 4.1940134763717651e-01</leafValues></_>
        <_>
          <internalNodes>
            0 -1 6 7.2498209774494171e-02</internalNodes>
          <leafValues>
            2.2870397567749023e-01 -9.1071408987045288e-01</leafValues></_>
        <_>
          <internalNodes>
            0 -1 1 -5.4560322314500809e-03</internalNodes>
          <leafValues>
            6.3904380798339844e-01 -3.6669382452964783e-01</leafValues></_>
        <_>
          <internalNodes>
            0 -1 73 1.7884422559291124e-03</internalNodes>
          <leafValues>
            -3.4799805283546448e-01 6.0223370790481567e-01</leafValues></_>
        <_>
          <internalNodes>
            0 -1 15 -1.6028599347919226e-03</internalNodes>
          <leafValues>
            6.9930076599121094e-01 -3.0980199575424194e-01</leafValues></_></weakClassifiers></_>
    <!-- stage 14 -->
    <_>
      <maxWeakCount>8</maxWeakCount>
      <stageThreshold>-8.6534434556961060e-01</stageThreshold>
      <weakClassifiers>
        <_>
          <internalNodes>
            0 -1 9 4.3651433661580086e-03</internalNodes>
          <leafValues>
            5.9583950042724609e-01 -7.4509805440902710e-01</leafValues></_>
        <_>
          <internalNodes>
            0 -1 7 -5.7562626898288727e-02</internalNodes>
          <leafValues>
            8.2804012298583984e-01 -2.7006193995475769e-01</leafValues></_>
        <_>
          <internalNodes>
            0 -1 25 -2.7672062060446478e-05</internalNodes>
          <leafValues>
            4.0642470121383667e-01 -6.2149494886398315e-01</leafValues></_>
        <_>
          <internalNodes>
            0 -1 10 8.7233120575547218e-04</internalNodes>
          <leafValues>
            -4.1584461927413940e-01 4.9546071887016296e-01</leafValues></_>
        <_>
          <internalNodes>
            0 -1 41 -8.2334438047837466e-05</internalNodes>
          <leafValues>
            -7.1544760465621948e-01 2.7543735504150391e-01</leafValues></_>
        <_>
          <internalNodes>
            0 -1 76 8.6706149158999324e-04</internalNodes>
          <leafValues>
            -3.3523651957511902e-01 6.3209235668182373e-01</leafValues></_>
        <_>
          <internalNodes>
            0 -1 18 1.3886732049286366e-03</internalNodes>
          <leafValues>
            2.2787138819694519e-01 -7.7322155237197876e-01</leafValues></_>
        <_>
          <internalNodes>
            0 -1 8 1.5194024890661240e-03</internalNodes>
          <leafValues>
            -3.2185456156730652e-01 6.3839071989059448e-01</leafValues></_></weakClassifiers></_>
    <!-- stage 15 -->
    <_>
      <maxWeakCount>5</maxWeakCount>
      <stageThreshold>-3.4361144900321960e-01</stageThreshold>
      <weakClassifiers>
        <_>
          <internalNodes>
            0 -1 31 1.4370435383170843e-04</internalNodes>
          <leafValues>
            -5.6451612710952759e-01 6.0675883293151855e-01</leafValues></_>
        <_>
          <internalNodes>
            0 -1 71 5.4779788479208946e-04</internalNodes>
          <leafValues>
            -3.7984165549278259e-01 5.5648630857467651e-01</leafValues></_>
        <_>
          <internalNodes>
            0 -1 38 -9.4491767231374979e-04</internalNodes>
          <leafValues>
            -8.9441376924514771e-01 2.6964554190635681e-01</leafValues></_>
        <_>
          <internalNodes>
            0 -1 63 7.1264355210587382e-04</internalNodes>
          <leafValues>
            -3.1721967458724976e-01 7.4353045225143433e-01</leafValues></_>
        <_>
          <internalNodes>
            0 -1 37 -1.5425505116581917e-03</internalNodes>
          <leafValues>
            8.2344460487365723e-01 -2.8800749778747559e-01</leafValues></_></weakClassifiers></_></stages>
  <features>
    <_>
      <rects>
        <_>
          0 0 4 18 -1.</_>
        <_>
          2 0 2 18 2.</_></rects>
      <tilted>0</tilted></_>
    <_>
      <rects>
        <_>
          0 8 2 4 -1.</_>
        <_>
          1 8 1 4 2.</_></rects>
      <tilted>0</tilted></_>
    <_>
      <rects>
        <_>
          0 9 2 3 -1.</_>
        <_>
          1 9 1 3 2.</_></rects>
      <tilted>0</tilted></_>
    <_>
      <rects>
        <_>
          0 9 3 3 -1.</_>
        <_>
          1 9 1 3 3.</_></rects>
      <tilted>0</tilted></_>
    <_>
      <rects>
        <_>
          0 9 4 5 -1.</_>
        <_>
          2 9 2 5 2.</_></rects>
      <tilted>0</tilted></_>
    <_>
      <rects>
        <_>
          0 10 9 5 -1.</_>
        <_>
          3 10 3 5 3.</_></rects>
      <tilted>0</tilted></_>
    <_>
      <rects>
        <_>
          2 7 14 7 -1.</_>
        <_>
          9 7 7 7 2.</_></rects>
      <tilted>0</tilted></_>
    <_>
      <rects>
        <_>
          2 11 15 3 -1.</_>
        <_>
          7 11 5 3 3.</_></rects>
      <tilted>0</tilted></_>
    <_>
      <rects>
        <_>
          3 3 2 4 -1.</_>
        <_>
          3 3 1 2 2.</_>
        <_>
          4 5 1 2 2.</_></rects>
      <tilted>0</tilted></_>
    <_>
      <rects>
        <_>
          3 11 3 4 -1.</_>
        <_>
          3 13 3 2 2.</_></rects>
      <tilted>0</tilted></_>
    <_>
      <rects>
        <_>
          3 11 6 3 -1.</_>
        <_>
          3 12 6 1 3.</_></rects>
      <tilted>0</tilted></_>
    <_>
      <rects>
        <_>
          4 10 4 2 -1.</_>
        <_>
          6 10 2 2 2.</_></rects>
      <tilted>0</tilted></_>
    <_>
      <rects>
        <_>
          4 10 9 1 -1.</_>
        <_>
          7 10 3 1 3.</_></rects>
      <tilted>0</tilted></_>
    <_>
      <rects>
        <_>
          4 11 1 6 -1.</_>
        <_>
          4 14 1 3 2.</_></rects>
      <tilted>0</tilted></_>
    <_>
      <rects>
        <_>
          4 16 8 1 -1.</_>
        <_>
          8 16 4 1 2.</_></rects>
      <tilted>0</tilted></_>
    <_>
      <rects>
        <_>
          5 1 6 2 -1.</_>
        <_>
          5 1 3 1 2.</_>
        <_>
          8 2 3 1 2.</_></rects>
      <tilted>0</tilted></_>
    <_>
      <rects>
        <_>
          5 4 2 14 -1.</_>
        <_>
          5 11 2 7 2.</_></rects>
      <tilted>0</tilted></_>
    <_>
      <rects>
        <_>
          5 11 1 4 -1.</_>
        <_>
          5 13 1 2 2.</_></rects>
      <tilted>0</tilted></_>
    <_>
      <rects>
        <_>
          5 15 8 1 -1.</_>
        <_>
          9 15 4 1 2.</_></rects>
      <tilted>0</tilted></_>
    <_>
      <rects>
        <_>
          6 8 4 6 -1.</_>
        <_>
          6 10 4 2 3.</_></rects>
      <tilted>0</tilted></_>
    <_>
      <rects>
        <_>
          6 9 5 2 -1.</_>
        <_>
          6 10 5 1 2.</_></rects>
      <tilted>0</tilted></_>
    <_>
      <rects>
        <_>
          6 15 6 1 -1.</_>
        <_>
          9 15 3 1 2.</_></rects>
      <tilted>0</tilted></_>
    <_>
      <rects>
        <_>
          6 15 8 1 -1.</_>
        <_>
          10 15 4 1 2.</_></rects>
      <tilted>0</tilted></_>
    <_>
      <rects>
        <_>
          7 1 12 4 -1.</_>
        <_>
          7 1 6 2 2.</_>
        <_>
          13 3 6 2 2.</_></rects>
      <tilted>0</tilted></_>
    <_>
      <rects>
        <_>
          7 4 5 6 -1.</_>
        <_>
          7 6 5 2 3.</_></rects>
      <tilted>0</tilted></_>
    <_>
      <rects>
        <_>
          7 5 4 4 -1.</_>
        <_>
          7 7 4 2 2.</_></rects>
      <tilted>0</tilted></_>
    <_>
      <rects>
        <_>
          7 5 9 6 -1.</_>
        <_>
          7 7 9 2 3.</_></rects>
      <tilted>0</tilted></_>
    <_>
      <rects>
        <_>
          7 9 8 2 -1.</_>
        <_>
          7 10 8 1 2.</_></rects>
      <tilted>0</tilted></_>
    <_>
      <rects>
        <_>
          7 14 8 6 -1.</_>
        <_>
          7 16 8 2 3.</_></rects>
      <tilted>0</tilted></_>
    <_>
      <rects>
        <_>
          8 0 4 2 -1.</_>
        <_>
          8 1 4 1 2.</_></rects>
      <tilted>0</tilted></_>
    <_>
      <rects>
        <_>
          8 1 6 6 -1.</_>
        <_>
          8 3 6 2 3.</_></rects>
      <tilted>0</tilted></_>
    <_>
      <rects>
        <_>
          8 5 2 6 -1.</_>
        <_>
          8 7 2 2 3.</_></rects>
      <tilted>0</tilted></_>
    <_>
      <rects>
        <_>
          8 5 6 5 -1.</_>
        <_>
          10 5 2 5 3.</_></rects>
      <tilted>0</tilted></_>
    <_>
      <rects>
        <_>
          8 6 2 4 -1.</_>
        <_>
          8 8 2 2 2.</_></rects>
      <tilted>0</tilted></_>
    <_>
      <rects>
        <_>
          8 8 4 3 -1.</_>
        <_>
          8 9 4 1 3.</_></rects>
      <tilted>0</tilted></_>
    <_>
      <rects>
        <_>
          8 9 1 3 -1.</_>
        <_>
          8 10 1 1 3.</_></rects>
      <tilted>0</tilted></_>
    <_>
      <rects>
        <_>
          8 10 9 1 -1.</_>
        <_>
          11 10 3 1 3.</_></rects>
      <tilted>0</tilted></_>
    <_>
      <rects>
        <_>
          8 12 2 2 -1.</_>
        <_>
          8 13 2 1 2.</_></rects>
      <tilted>0</tilted></_>
    <_>
      <rects>
        <_>
          8 15 4 2 -1.</_>
        <_>
          10 15 2 2 2.</_></rects>
      <tilted>0</tilted></_>
    <_>
      <rects>
        <_>
          8 16 8 4 -1.</_>
        <_>
          8 18 8 2 2.</_></rects>
      <tilted>0</tilted></_>
    <_>
      <rects>
        <_>
          9 3 3 4 -1.</_>
        <_>
          9 5 3 2 2.</_></rects>
      <tilted>0</tilted></_>
    <_>
      <rects>
        <_>
          9 4 4 1 -1.</_>
        <_>
          11 4 2 1 2.</_></rects>
      <tilted>0</tilted></_>
    <_>
      <rects>
        <_>
          9 4 3 4 -1.</_>
        <_>
          9 6 3 2 2.</_></rects>
      <tilted>0</tilted></_>
    <_>
      <rects>
        <_>
          9 4 5 4 -1.</_>
        <_>
          9 6 5 2 2.</_></rects>
      <tilted>0</tilted></_>
    <_>
      <rects>
        <_>
          9 4 6 4 -1.</_>
        <_>
          9 6 6 2 2.</_></rects>
      <tilted>0</tilted></_>
    <_>
      <rects>
        <_>
          9 5 2 6 -1.</_>
        <_>
          9 5 1 3 2.</_>
        <_>
          10 8 1 3 2.</_></rects>
      <tilted>0</tilted></_>
    <_>
      <rects>
        <_>
          9 5 4 3 -1.</_>
        <_>
          11 5 2 3 2.</_></rects>
      <tilted>0</tilted></_>
    <_>
      <rects>
        <_>
          9 5 6 1 -1.</_>
        <_>
          12 5 3 1 2.</_></rects>
      <tilted>0</tilted></_>
    <_>
      <rects>
        <_>
          9 5 6 2 -1.</_>
        <_>
          12 5 3 2 2.</_></rects>
      <tilted>0</tilted></_>
    <_>
      <rects>
        <_>
          9 6 1 6 -1.</_>
        <_>
          9 9 1 3 2.</_></rects>
      <tilted>0</tilted></_>
    <_>
      <rects>
        <_>
          9 6 2 6 -1.</_>
        <_>
          9 8 2 2 3.</_></rects>
      <tilted>0</tilted></_>
    <_>
      <rects>
        <_>
          9 6 6 4 -1.</_>
        <_>
          11 6 2 4 3.</_></rects>
      <tilted>0</tilted></_>
    <_>
      <rects>
        <_>
          9 11 1 3 -1.</_>
        <_>
          9 12 1 1 3.</_></rects>
      <tilted>0</tilted></_>
    <_>
      <rects>
        <_>
          9 13 2 6 -1.</_>
        <_>
          9 15 2 2 3.</_></rects>
      <tilted>0</tilted></_>
    <_>
      <rects>
        <_>
          9 16 4 1 -1.</_>
        <_>
          11 16 2 1 2.</_></rects>
      <tilted>0</tilted></_>
    <_>
      <rects>
        <_>
          10 4 4 3 -1.</_>
        <_>
          12 4 2 3 2.</_></rects>
      <tilted>0</tilted></_>
    <_>
      <rects>
        <_>
          10 5 4 1 -1.</_>
        <_>
          12 5 2 1 2.</_></rects>
      <tilted>0</tilted></_>
    <_>
      <rects>
        <_>
          10 5 2 4 -1.</_>
        <_>
          10 7 2 2 2.</_></rects>
      <tilted>0</tilted></_>
    <_>
      <rects>
        <_>
          10 5 4 4 -1.</_>
        <_>
          10 7 4 2 2.</_></rects>
      <tilted>0</tilted></_>
    <_>
      <rects>
        <_>
          10 6 6 1 -1.</_>
        <_>
          12 6 2 1 3.</_></rects>
      <tilted>0</tilted></_>
    <_>
      <rects>
        <_>
          10 6 6 1 -1.</_>
        <_>
          13 6 3 1 2.</_></rects>
      <tilted>0</tilted></_>
    <_>
      <rects>
        <_>
          11 5 2 4 -1.</_>
        <_>
          11 7 2 2 2.</_></rects>
      <tilted>0</tilted></_>
    <_>
      <rects>
        <_>
          11 6 4 2 -1.</_>
        <_>
          13 6 2 2 2.</_></rects>
      <tilted>0</tilted></_>
    <_>
      <rects>
        <_>
          11 11 2 2 -1.</_>
        <_>
          12 11 1 2 2.</_></rects>
      <tilted>0</tilted></_>
    <_>
      <rects>
        <_>
          12 1 1 3 -1.</_>
        <_>
          12 2 1 1 3.</_></rects>
      <tilted>0</tilted></_>
    <_>
      <rects>
        <_>
          12 5 2 14 -1.</_>
        <_>
          12 12 2 7 2.</_></rects>
      <tilted>0</tilted></_>
    <_>
      <rects>
        <_>
          12 6 2 2 -1.</_>
        <_>
          13 6 1 2 2.</_></rects>
      <tilted>0</tilted></_>
    <_>
      <rects>
        <_>
          12 6 4 3 -1.</_>
        <_>
          14 6 2 3 2.</_></rects>
      <tilted>0</tilted></_>
    <_>
      <rects>
        <_>
          13 4 1 4 -1.</_>
        <_>
          13 6 1 2 2.</_></rects>
      <tilted>0</tilted></_>
    <_>
      <rects>
        <_>
          13 6 1 2 -1.</_>
        <_>
          13 7 1 1 2.</_></rects>
      <tilted>0</tilted></_>
    <_>
      <rects>
        <_>
          13 10 4 3 -1.</_>
        <_>
          15 10 2 3 2.</_></rects>
      <tilted>0</tilted></_>
    <_>
      <rects>
        <_>
          13 11 1 6 -1.</_>
        <_>
          13 13 1 2 3.</_></rects>
      <tilted>0</tilted></_>
    <_>
      <rects>
        <_>
          14 4 1 10 -1.</_>
        <_>
          14 9 1 5 2.</_></rects>
      <tilted>0</tilted></_>
    <_>
      <rects>
        <_>
          15 0 1 8 -1.</_>
        <_>
          15 4 1 4 2.</_></rects>
      <tilted>0</tilted></_>
    <_>
      <rects>
        <_>
          15 0 2 10 -1.</_>
        <_>
          15 5 2 5 2.</_></rects>
      <tilted>0</tilted></_>
    <_>
      <rects>
        <_>
          17 7 3 2 -1.</_>
        <_>
          18 7 1 2 3.</_></rects>
      <tilted>0</tilted></_>
    <_>
      <rects>
        <_>
          17 8 1 6 -1.</_>
        <_>
          17 10 1 2 3.</_></rects>
      <tilted>0</tilted></_>
    <_>
      <rects>
        <_>
          17 10 3 1 -1.</_>
        <_>
          18 10 1 1 3.</_></rects>
      <tilted>0</tilted></_></features></cascade>
</opencv_storage>
