<?xml version="1.0"?>
<opencv_storage>
<stage9>
  <maxWeakCount>10</maxWeakCount>
  <stageThreshold>-9.8823797702789307e-01</stageThreshold>
  <weakClassifiers>
    <_>
      <internalNodes>
        0 -1 39002 -1.6552191227674484e-02</internalNodes>
      <leafValues>
        -8.9473682641983032e-01 4.4100198149681091e-01</leafValues></_>
    <_>
      <internalNodes>
        0 -1 64357 3.0478551052510738e-03</internalNodes>
      <leafValues>
        -4.3763509392738342e-01 3.7186238169670105e-01</leafValues></_>
    <_>
      <internalNodes>
        0 -1 60010 4.3318088864907622e-04</internalNodes>
      <leafValues>
        1.9577762484550476e-01 -6.9121766090393066e-01</leafValues></_>
    <_>
      <internalNodes>
        0 -1 48514 -2.1346332505345345e-03</internalNodes>
      <leafValues>
        3.6193594336509705e-01 -3.9750772714614868e-01</leafValues></_>
    <_>
      <internalNodes>
        0 -1 65464 -1.5234777703881264e-02</internalNodes>
      <leafValues>
        4.2498007416725159e-01 -3.5029599070549011e-01</leafValues></_>
    <_>
      <internalNodes>
        0 -1 67297 9.4046263257041574e-04</internalNodes>
      <leafValues>
        1.5452677011489868e-01 -9.2615461349487305e-01</leafValues></_>
    <_>
      <internalNodes>
        0 -1 50237 1.0276986286044121e-02</internalNodes>
      <leafValues>
        -3.4040805697441101e-01 4.4192907214164734e-01</leafValues></_>
    <_>
      <internalNodes>
        0 -1 67084 3.8972432957962155e-04</internalNodes>
      <leafValues>
        2.0643573999404907e-01 -7.3474180698394775e-01</leafValues></_>
    <_>
      <internalNodes>
        0 -1 50109 1.0334067977964878e-02</internalNodes>
      <leafValues>
        -2.7179795503616333e-01 5.5594402551651001e-01</leafValues></_>
    <_>
      <internalNodes>
        0 -1 62654 -1.2576783075928688e-02</internalNodes>
      <leafValues>
        5.4386436939239502e-01 -2.6269713044166565e-01</leafValues></_></weakClassifiers></stage9>
</opencv_storage>
