<?xml version="1.0"?>
<opencv_storage>
<stage5>
  <maxWeakCount>7</maxWeakCount>
  <stageThreshold>-5.6876254081726074e-01</stageThreshold>
  <weakClassifiers>
    <_>
      <internalNodes>
        0 -1 67373 8.7214668747037649e-04</internalNodes>
      <leafValues>
        4.9237170815467834e-01 -7.6923078298568726e-01</leafValues></_>
    <_>
      <internalNodes>
        0 -1 78109 -2.4056099355220795e-03</internalNodes>
      <leafValues>
        7.6163911819458008e-01 -2.9494503140449524e-01</leafValues></_>
    <_>
      <internalNodes>
        0 -1 70834 -4.7217020764946938e-03</internalNodes>
      <leafValues>
        4.7553572058677673e-01 -3.6759483814239502e-01</leafValues></_>
    <_>
      <internalNodes>
        0 -1 61482 -9.5274150371551514e-03</internalNodes>
      <leafValues>
        6.0229545831680298e-01 -2.5352993607521057e-01</leafValues></_>
    <_>
      <internalNodes>
        0 -1 57656 -8.0770649947226048e-04</internalNodes>
      <leafValues>
        5.7414698600769043e-01 -2.5961282849311829e-01</leafValues></_>
    <_>
      <internalNodes>
        0 -1 31033 -1.0055320337414742e-02</internalNodes>
      <leafValues>
        -8.6094176769256592e-01 2.1403507888317108e-01</leafValues></_>
    <_>
      <internalNodes>
        0 -1 38763 -1.4842411037534475e-03</internalNodes>
      <leafValues>
        2.1196800470352173e-01 -7.0140027999877930e-01</leafValues></_></weakClassifiers></stage5>
</opencv_storage>
